digraph Tree {
node [shape=box, style="filled, rounded", color="black", fontname=helvetica] ;
edge [fontname=helvetica] ;
0 [label="Restricted_Freedoms <= 0.5\ngini = 0.661\nsamples = 115\nvalue = [31, 42, 42]", fillcolor="#39e58100"] ;
1 [label="support_death_penalty <= 0.5\ngini = 0.37\nsamples = 31\nvalue = [24, 2, 5]", fillcolor="#e58139ba"] ;
0 -> 1 [labeldistance=2.5, labelangle=45, headlabel="True"] ;
2 [label="Region <= 1.5\ngini = 0.625\nsamples = 4\nvalue = [1, 2, 1]", fillcolor="#39e58155"] ;
1 -> 2 ;
3 [label="Education <= 4.0\ngini = 0.5\nsamples = 2\nvalue = [1, 0, 1]", fillcolor="#e5813900"] ;
2 -> 3 ;
4 [label="gini = 0.0\nsamples = 1\nvalue = [1, 0, 0]", fillcolor="#e58139ff"] ;
3 -> 4 ;
5 [label="gini = 0.0\nsamples = 1\nvalue = [0, 0, 1]", fillcolor="#8139e5ff"] ;
3 -> 5 ;
6 [label="gini = 0.0\nsamples = 2\nvalue = [0, 2, 0]", fillcolor="#39e581ff"] ;
2 -> 6 ;
7 [label="Against_Privatization <= 0.5\ngini = 0.252\nsamples = 27\nvalue = [23, 0, 4]", fillcolor="#e58139d3"] ;
1 -> 7 ;
8 [label="Age <= 1.5\ngini = 0.111\nsamples = 17\nvalue = [16, 0, 1]", fillcolor="#e58139ef"] ;
7 -> 8 ;
9 [label="Economy_Good <= 0.5\ngini = 0.444\nsamples = 3\nvalue = [2, 0, 1]", fillcolor="#e581397f"] ;
8 -> 9 ;
10 [label="gini = 0.0\nsamples = 1\nvalue = [1, 0, 0]", fillcolor="#e58139ff"] ;
9 -> 10 ;
11 [label="gini = 0.5\nsamples = 2\nvalue = [1, 0, 1]", fillcolor="#e5813900"] ;
9 -> 11 ;
12 [label="gini = 0.0\nsamples = 14\nvalue = [14, 0, 0]", fillcolor="#e58139ff"] ;
8 -> 12 ;
13 [label="Age <= 2.5\ngini = 0.42\nsamples = 10\nvalue = [7, 0, 3]", fillcolor="#e5813992"] ;
7 -> 13 ;
14 [label="Education <= 4.5\ngini = 0.5\nsamples = 6\nvalue = [3, 0, 3]", fillcolor="#e5813900"] ;
13 -> 14 ;
15 [label="gini = 0.0\nsamples = 2\nvalue = [0, 0, 2]", fillcolor="#8139e5ff"] ;
14 -> 15 ;
16 [label="Sex <= 0.5\ngini = 0.375\nsamples = 4\nvalue = [3, 0, 1]", fillcolor="#e58139aa"] ;
14 -> 16 ;
17 [label="gini = 0.5\nsamples = 2\nvalue = [1, 0, 1]", fillcolor="#e5813900"] ;
16 -> 17 ;
18 [label="gini = 0.0\nsamples = 2\nvalue = [2, 0, 0]", fillcolor="#e58139ff"] ;
16 -> 18 ;
19 [label="gini = 0.0\nsamples = 4\nvalue = [4, 0, 0]", fillcolor="#e58139ff"] ;
13 -> 19 ;
20 [label="Age <= 1.5\ngini = 0.572\nsamples = 84\nvalue = [7, 40, 37]", fillcolor="#39e58110"] ;
0 -> 20 [labeldistance=2.5, labelangle=-45, headlabel="False"] ;
21 [label="Region <= 4.5\ngini = 0.492\nsamples = 22\nvalue = [1, 7, 14]", fillcolor="#8139e577"] ;
20 -> 21 ;
22 [label="Education <= 1.5\ngini = 0.41\nsamples = 19\nvalue = [1, 4, 14]", fillcolor="#8139e5aa"] ;
21 -> 22 ;
23 [label="gini = 0.0\nsamples = 1\nvalue = [1, 0, 0]", fillcolor="#e58139ff"] ;
22 -> 23 ;
24 [label="abortion_ban <= 0.5\ngini = 0.346\nsamples = 18\nvalue = [0, 4, 14]", fillcolor="#8139e5b6"] ;
22 -> 24 ;
25 [label="Region <= 1.5\ngini = 0.18\nsamples = 10\nvalue = [0, 1, 9]", fillcolor="#8139e5e3"] ;
24 -> 25 ;
26 [label="gini = 0.32\nsamples = 5\nvalue = [0, 1, 4]", fillcolor="#8139e5bf"] ;
25 -> 26 ;
27 [label="gini = 0.0\nsamples = 5\nvalue = [0, 0, 5]", fillcolor="#8139e5ff"] ;
25 -> 27 ;
28 [label="Region <= 2.5\ngini = 0.469\nsamples = 8\nvalue = [0, 3, 5]", fillcolor="#8139e566"] ;
24 -> 28 ;
29 [label="gini = 0.278\nsamples = 6\nvalue = [0, 1, 5]", fillcolor="#8139e5cc"] ;
28 -> 29 ;
30 [label="gini = 0.0\nsamples = 2\nvalue = [0, 2, 0]", fillcolor="#39e581ff"] ;
28 -> 30 ;
31 [label="gini = 0.0\nsamples = 3\nvalue = [0, 3, 0]", fillcolor="#39e581ff"] ;
21 -> 31 ;
32 [label="Alcohol_prohibition <= 0.5\ngini = 0.57\nsamples = 62\nvalue = [6, 33, 23]", fillcolor="#39e58141"] ;
20 -> 32 ;
33 [label="Region <= 1.5\ngini = 0.5\nsamples = 45\nvalue = [2, 28, 15]", fillcolor="#39e5816e"] ;
32 -> 33 ;
34 [label="Sex <= 0.5\ngini = 0.383\nsamples = 31\nvalue = [0, 23, 8]", fillcolor="#39e581a6"] ;
33 -> 34 ;
35 [label="support_death_penalty <= 0.5\ngini = 0.444\nsamples = 24\nvalue = [0, 16, 8]", fillcolor="#39e5817f"] ;
34 -> 35 ;
36 [label="gini = 0.492\nsamples = 16\nvalue = [0, 9, 7]", fillcolor="#39e58139"] ;
35 -> 36 ;
37 [label="gini = 0.219\nsamples = 8\nvalue = [0, 7, 1]", fillcolor="#39e581db"] ;
35 -> 37 ;
38 [label="gini = 0.0\nsamples = 7\nvalue = [0, 7, 0]", fillcolor="#39e581ff"] ;
34 -> 38 ;
39 [label="Against_Privatization <= 0.5\ngini = 0.602\nsamples = 14\nvalue = [2, 5, 7]", fillcolor="#8139e539"] ;
33 -> 39 ;
40 [label="gini = 0.0\nsamples = 4\nvalue = [0, 0, 4]", fillcolor="#8139e5ff"] ;
39 -> 40 ;
41 [label="Economy_Good <= 0.5\ngini = 0.62\nsamples = 10\nvalue = [2, 5, 3]", fillcolor="#39e58149"] ;
39 -> 41 ;
42 [label="gini = 0.449\nsamples = 7\nvalue = [1, 5, 1]", fillcolor="#39e581aa"] ;
41 -> 42 ;
43 [label="gini = 0.444\nsamples = 3\nvalue = [1, 0, 2]", fillcolor="#8139e57f"] ;
41 -> 43 ;
44 [label="Sex <= 0.5\ngini = 0.637\nsamples = 17\nvalue = [4, 5, 8]", fillcolor="#8139e540"] ;
32 -> 44 ;
45 [label="abortion_ban <= 0.5\ngini = 0.663\nsamples = 13\nvalue = [4, 5, 4]", fillcolor="#39e5811c"] ;
44 -> 45 ;
46 [label="Region <= 6.0\ngini = 0.568\nsamples = 9\nvalue = [3, 5, 1]", fillcolor="#39e58155"] ;
45 -> 46 ;
47 [label="gini = 0.469\nsamples = 8\nvalue = [3, 5, 0]", fillcolor="#39e58166"] ;
46 -> 47 ;
48 [label="gini = 0.0\nsamples = 1\nvalue = [0, 0, 1]", fillcolor="#8139e5ff"] ;
46 -> 48 ;
49 [label="More_Secular <= 0.5\ngini = 0.375\nsamples = 4\nvalue = [1, 0, 3]", fillcolor="#8139e5aa"] ;
45 -> 49 ;
50 [label="gini = 0.5\nsamples = 2\nvalue = [1, 0, 1]", fillcolor="#e5813900"] ;
49 -> 50 ;
51 [label="gini = 0.0\nsamples = 2\nvalue = [0, 0, 2]", fillcolor="#8139e5ff"] ;
49 -> 51 ;
52 [label="gini = 0.0\nsamples = 4\nvalue = [0, 0, 4]", fillcolor="#8139e5ff"] ;
44 -> 52 ;
}